24 128
1 0.054307 -0.104086 0.017156 -0.045423 -0.059520 -0.010706 0.014110 -0.042804 0.059258 0.041189 0.062425 -0.041537 0.035700 -0.107066 -0.086933 -0.119328 0.020341 -0.025194 -0.045472 0.050471 -0.005728 0.016620 -0.032529 -0.008095 0.005899 -0.111114 -0.040872 0.074433 -0.024605 -0.023284 -0.071798 0.058107 0.040839 0.076110 -0.003292 0.019744 0.003124 0.000056 0.046852 -0.089378 0.062554 -0.049275 0.021019 -0.010175 0.010615 0.013762 -0.022265 -0.007039 -0.019181 0.093881 0.006901 -0.050738 0.082063 -0.035885 0.091975 -0.085702 0.001545 0.012279 0.007350 0.026508 0.016566 -0.068046 -0.039010 0.008268 -0.022195 0.005028 -0.033568 -0.026571 -0.058044 0.018737 -0.029184 0.022834 0.019174 0.040915 -0.001287 0.031383 0.083936 -0.024526 -0.019323 -0.030091 -0.003283 -0.008344 -0.027541 -0.057721 0.004509 0.028717 -0.061665 0.018702 -0.062963 -0.025539 0.013546 -0.055195 0.025781 -0.022747 0.030329 -0.019675 0.028506 0.062611 0.016326 -0.086989 -0.050817 0.046753 0.008650 0.036409 0.016289 0.028516 -0.029489 -0.000659 0.000757 0.013412 -0.006446 -0.042180 0.028500 0.068278 -0.009193 0.073345 0.040960 -0.041161 0.011565 0.019732 -0.045091 0.063250 0.046015 -0.020469 0.023233 -0.057437 0.000978 0.067877
2 0.044552 -0.095957 0.015389 -0.040297 -0.047853 -0.008067 0.010692 -0.037146 0.051196 0.037035 0.057427 -0.038609 0.033678 -0.092993 -0.081085 -0.110360 0.013883 -0.022929 -0.039344 0.047629 -0.005713 0.015482 -0.029430 -0.004562 0.000306 -0.102980 -0.038445 0.069197 -0.018486 -0.025131 -0.067319 0.054573 0.032510 0.064317 -0.006325 0.019794 0.002990 -0.006265 0.043862 -0.083685 0.054967 -0.049787 0.016929 -0.005588 0.012888 0.012642 -0.017509 -0.004291 -0.020021 0.088669 0.009331 -0.051942 0.079758 -0.025681 0.080421 -0.085149 0.001392 0.013085 0.001926 0.020735 0.019162 -0.063552 -0.038127 0.009107 -0.023430 0.007587 -0.033890 -0.025092 -0.052652 0.012150 -0.026006 0.021250 0.011271 0.038118 0.002097 0.028633 0.074836 -0.020835 -0.014304 -0.026621 -0.008570 -0.000390 -0.028960 -0.054525 0.003584 0.023760 -0.056560 0.022163 -0.054506 -0.020891 0.015144 -0.050657 0.027444 -0.019423 0.027097 -0.011973 0.025582 0.053148 0.015564 -0.080055 -0.047478 0.037828 0.009219 0.039517 0.011751 0.025115 -0.027026 -0.003006 0.007155 0.011114 -0.004280 -0.043850 0.025005 0.062264 -0.012246 0.070368 0.035309 -0.036636 0.008557 0.019593 -0.043526 0.055007 0.040519 -0.016452 0.022350 -0.050539 -0.001491 0.067584
0 0.055725 -0.110105 0.019381 -0.046739 -0.060323 -0.009134 0.019902 -0.045186 0.062351 0.037743 0.071538 -0.048975 0.030984 -0.112264 -0.093357 -0.126376 0.017704 -0.032984 -0.044565 0.055777 -0.011837 0.021362 -0.035305 -0.006882 0.002099 -0.118378 -0.039648 0.082205 -0.022431 -0.027212 -0.074117 0.064328 0.043753 0.082668 -0.009653 0.027042 -0.003650 -0.003360 0.050527 -0.097875 0.062081 -0.057187 0.016759 -0.011554 0.016322 0.018691 -0.024553 -0.010253 -0.024032 0.103064 0.008879 -0.054294 0.093147 -0.034098 0.094221 -0.095892 -0.000246 0.007689 0.001073 0.026225 0.018866 -0.069558 -0.043360 0.013504 -0.022657 0.003553 -0.032955 -0.026629 -0.057478 0.018079 -0.033588 0.022072 0.017571 0.039174 -0.000178 0.032615 0.090642 -0.029776 -0.016225 -0.027653 -0.010138 -0.007817 -0.028419 -0.061809 0.009550 0.031190 -0.062196 0.025986 -0.066624 -0.024380 0.010276 -0.058605 0.027287 -0.028158 0.026863 -0.016335 0.029468 0.063428 0.011109 -0.091130 -0.053000 0.043277 0.015849 0.038588 0.016916 0.029588 -0.030515 -0.006240 0.002841 0.016478 -0.002774 -0.043521 0.029015 0.075745 -0.014013 0.079008 0.041837 -0.043440 0.009361 0.020135 -0.045235 0.061038 0.048630 -0.016427 0.028213 -0.061945 -0.001718 0.076343
8 0.033135 -0.065522 0.009071 -0.028330 -0.037541 -0.001077 0.012136 -0.024175 0.040861 0.023328 0.039506 -0.026973 0.020588 -0.065645 -0.057847 -0.071414 0.014514 -0.020361 -0.031808 0.034085 -0.006167 0.013726 -0.020155 -0.000187 0.003230 -0.070964 -0.026510 0.043348 -0.012734 -0.016936 -0.045675 0.034139 0.021392 0.049247 -0.001431 0.013806 -0.004197 -0.000282 0.025878 -0.055220 0.038226 -0.031349 0.009576 -0.004512 0.011494 0.010240 -0.011011 -0.004762 -0.013397 0.062035 0.000190 -0.037862 0.056026 -0.019803 0.060294 -0.058782 0.002363 0.008089 0.002839 0.017992 0.010163 -0.047199 -0.027711 0.008397 -0.016519 0.006349 -0.024341 -0.017480 -0.032529 0.012831 -0.018694 0.011952 0.005836 0.027689 -0.001334 0.024522 0.053319 -0.016183 -0.006141 -0.022460 -0.004289 -0.000922 -0.018231 -0.031095 0.003619 0.019483 -0.037992 0.016488 -0.036654 -0.016107 0.006243 -0.037020 0.017589 -0.018596 0.017588 -0.013784 0.018471 0.038920 0.007482 -0.059026 -0.032456 0.028365 0.012346 0.028595 0.005389 0.019575 -0.021921 0.000402 0.004949 0.007197 -0.001015 -0.025796 0.016825 0.046910 -0.005719 0.047511 0.027959 -0.019673 0.007459 0.013106 -0.031678 0.042572 0.022558 -0.011628 0.012100 -0.034661 -0.005737 0.042631
20 0.034427 -0.068019 0.007963 -0.026981 -0.038303 -0.004505 0.012272 -0.026825 0.037050 0.028970 0.040756 -0.033860 0.024798 -0.067701 -0.057167 -0.077710 0.010798 -0.019724 -0.029068 0.036670 -0.004287 0.012494 -0.020822 -0.004278 -0.000142 -0.076422 -0.028662 0.047291 -0.012373 -0.013978 -0.049424 0.036494 0.024227 0.053176 -0.001754 0.015061 -0.001244 0.001302 0.036045 -0.059544 0.043338 -0.034261 0.010169 -0.006194 0.006811 0.007570 -0.016864 -0.003904 -0.011492 0.061455 0.004111 -0.036496 0.053556 -0.023307 0.063644 -0.063479 0.002175 0.008446 0.000488 0.018068 0.014967 -0.048250 -0.030312 0.003650 -0.014190 0.002939 -0.025283 -0.021255 -0.038742 0.014903 -0.021130 0.018499 0.009441 0.023644 -0.000070 0.023397 0.054286 -0.020320 -0.009445 -0.021509 -0.001210 -0.001134 -0.018327 -0.040662 0.005912 0.021712 -0.040190 0.017930 -0.042840 -0.011635 0.007487 -0.037957 0.019064 -0.016575 0.022183 -0.007194 0.017868 0.041533 0.009666 -0.056226 -0.032034 0.026125 0.007278 0.026147 0.011710 0.014256 -0.020621 -0.000041 0.005819 0.010531 -0.006787 -0.031529 0.015117 0.046477 -0.008957 0.046520 0.027066 -0.025927 0.008328 0.015284 -0.027016 0.040753 0.025943 -0.009782 0.015101 -0.034784 -0.003176 0.050203
23 0.034631 -0.074468 0.013541 -0.031111 -0.039022 -0.002081 0.009760 -0.034147 0.041252 0.027736 0.046437 -0.033896 0.022746 -0.079172 -0.058192 -0.081408 0.011807 -0.022986 -0.033613 0.036476 -0.009653 0.014018 -0.018717 -0.004805 0.003581 -0.081372 -0.028509 0.057353 -0.018916 -0.014991 -0.052047 0.044769 0.032342 0.053664 -0.005965 0.019362 -0.000577 0.001706 0.037078 -0.069537 0.047609 -0.034914 0.009750 -0.002600 0.010874 0.010798 -0.015139 -0.004074 -0.009933 0.070463 0.003557 -0.039119 0.065901 -0.023565 0.060634 -0.067002 -0.000834 0.006892 0.006123 0.012718 0.016177 -0.052209 -0.030637 0.008548 -0.021220 0.003455 -0.027513 -0.020445 -0.038521 0.012032 -0.021731 0.016657 0.008852 0.024412 -0.001906 0.025718 0.058434 -0.021971 -0.010592 -0.024747 -0.004507 -0.004602 -0.017436 -0.041689 0.007353 0.016277 -0.041861 0.019308 -0.045310 -0.013772 0.006334 -0.037916 0.020160 -0.020926 0.017432 -0.007010 0.023391 0.046333 0.012495 -0.066458 -0.033283 0.029136 0.005133 0.029524 0.014273 0.015970 -0.023483 -0.003804 0.004372 0.007998 -0.002253 -0.036190 0.017784 0.047025 -0.009205 0.054762 0.028102 -0.026460 0.004997 0.018709 -0.029629 0.043703 0.034142 -0.010687 0.020990 -0.042933 0.003236 0.055885
6 0.030691 -0.067078 0.015058 -0.029277 -0.036503 -0.006315 0.013377 -0.029704 0.034922 0.022574 0.041244 -0.033431 0.020632 -0.065767 -0.055089 -0.077763 0.010922 -0.021410 -0.028554 0.033553 -0.002826 0.011149 -0.024299 -0.002988 0.003001 -0.072396 -0.023058 0.049479 -0.014268 -0.017740 -0.042553 0.035878 0.020983 0.051182 -0.007454 0.012533 -0.002328 -0.004160 0.027861 -0.057795 0.041459 -0.036247 0.014946 -0.003581 0.008844 0.012008 -0.014164 -0.003482 -0.011168 0.060628 0.002859 -0.036051 0.052580 -0.017072 0.057773 -0.062376 0.003963 0.009406 0.004659 0.012297 0.009025 -0.046025 -0.029385 0.009207 -0.018157 0.004757 -0.020908 -0.020479 -0.040029 0.010998 -0.014897 0.013497 0.011403 0.026657 0.004186 0.022381 0.056345 -0.019680 -0.007428 -0.020783 -0.006124 -0.000950 -0.022905 -0.040085 0.001410 0.019075 -0.036422 0.017217 -0.044362 -0.016249 0.005718 -0.032930 0.022278 -0.014735 0.021275 -0.006526 0.021418 0.038414 0.010045 -0.059830 -0.036230 0.030804 0.011324 0.027498 0.009140 0.015966 -0.021683 -0.003233 0.000827 0.005907 -0.001852 -0.027924 0.013157 0.047646 -0.003386 0.045411 0.024554 -0.022139 0.002787 0.010532 -0.030941 0.041082 0.024010 -0.015094 0.015124 -0.034033 -0.003166 0.049630
12 0.034699 -0.067639 0.010296 -0.027613 -0.040847 -0.003665 0.011384 -0.026951 0.036617 0.027629 0.043757 -0.026942 0.019438 -0.069774 -0.055238 -0.078778 0.011468 -0.018736 -0.026420 0.033051 -0.001778 0.008317 -0.017197 -0.003154 0.002642 -0.071158 -0.029681 0.045481 -0.017177 -0.017676 -0.044497 0.037688 0.021505 0.052311 -0.003987 0.013036 -0.003362 -0.001238 0.030602 -0.060574 0.039988 -0.033353 0.009058 -0.007244 0.009671 0.007957 -0.011245 -0.004534 -0.014336 0.065660 0.005393 -0.035714 0.057907 -0.020678 0.061657 -0.060911 0.005944 0.007728 0.002321 0.018150 0.011799 -0.047722 -0.024376 0.007040 -0.018052 0.006865 -0.024302 -0.020315 -0.034059 0.012603 -0.019943 0.010803 0.010310 0.025814 -0.000109 0.023737 0.050183 -0.015497 -0.012065 -0.021922 -0.002408 -0.004487 -0.020609 -0.033009 0.003750 0.015315 -0.041495 0.017945 -0.045102 -0.015846 0.009833 -0.033730 0.016565 -0.018485 0.018497 -0.007616 0.022111 0.038540 0.005918 -0.059489 -0.031217 0.024691 0.011229 0.029158 0.006915 0.019904 -0.014622 -0.002050 0.006198 0.004300 -0.005008 -0.029585 0.016731 0.048107 -0.008718 0.049771 0.021380 -0.023969 0.002187 0.015002 -0.025585 0.035449 0.027045 -0.012797 0.014651 -0.035633 -0.004842 0.045628
16 0.030737 -0.062605 0.012898 -0.024322 -0.033083 -0.007082 0.009097 -0.023873 0.039172 0.023267 0.042158 -0.029834 0.019942 -0.064738 -0.055554 -0.071834 0.009022 -0.015856 -0.030330 0.027734 -0.007713 0.010172 -0.021432 -0.001529 0.004828 -0.072391 -0.027164 0.050471 -0.016310 -0.019058 -0.045078 0.038058 0.026107 0.051217 -0.001210 0.016919 0.003677 -0.000042 0.033977 -0.061894 0.037161 -0.031658 0.007334 -0.007445 0.007828 0.011498 -0.011687 -0.008822 -0.008221 0.062131 0.000673 -0.037735 0.055171 -0.022473 0.058970 -0.060820 0.001946 0.008003 0.001688 0.013052 0.009923 -0.044370 -0.026553 0.004546 -0.018433 0.002315 -0.018195 -0.017546 -0.035649 0.012304 -0.021953 0.015602 0.007169 0.024569 -0.003540 0.022424 0.052813 -0.016964 -0.010174 -0.022717 -0.007583 -0.004188 -0.020331 -0.038692 0.005232 0.017737 -0.034649 0.010974 -0.043139 -0.013051 0.008894 -0.035937 0.013855 -0.014179 0.021423 -0.013439 0.019950 0.041439 0.005850 -0.053147 -0.031210 0.025373 0.006613 0.022391 0.006979 0.013221 -0.013975 -0.002492 0.001950 0.010230 -0.006823 -0.031472 0.015666 0.044361 -0.008527 0.043231 0.025524 -0.020249 0.005205 0.016557 -0.026765 0.039440 0.030511 -0.014139 0.018270 -0.035120 -0.002171 0.048862
21 0.035434 -0.074365 0.015949 -0.025787 -0.042674 -0.003337 0.012735 -0.029635 0.045098 0.025557 0.049954 -0.036861 0.022080 -0.077499 -0.062105 -0.084253 0.009207 -0.022054 -0.027503 0.040057 -0.009290 0.013016 -0.023635 -0.006306 0.000067 -0.075465 -0.030713 0.050016 -0.015929 -0.021356 -0.049869 0.042553 0.024341 0.056864 -0.007822 0.015571 0.003049 -0.001117 0.031293 -0.068502 0.039435 -0.036663 0.009154 -0.008016 0.007558 0.014974 -0.011767 -0.003426 -0.015002 0.065877 0.005765 -0.041141 0.061228 -0.021712 0.066718 -0.067536 0.002336 0.003281 0.005506 0.014148 0.009738 -0.052820 -0.027116 0.006333 -0.014073 0.007946 -0.020495 -0.023807 -0.043196 0.012778 -0.022398 0.013685 0.009316 0.027188 0.001868 0.024912 0.058708 -0.014869 -0.007648 -0.016627 -0.006507 -0.002018 -0.024034 -0.040494 0.006392 0.020155 -0.042099 0.013019 -0.047564 -0.018546 0.008999 -0.041613 0.021030 -0.021390 0.016445 -0.014308 0.017533 0.042338 0.012513 -0.064330 -0.037193 0.029261 0.012547 0.030654 0.006852 0.020432 -0.022520 -0.003052 -0.000977 0.007776 -0.004369 -0.031614 0.019807 0.047192 -0.009281 0.056731 0.030098 -0.025170 0.003359 0.015260 -0.031858 0.046627 0.033813 -0.015515 0.016637 -0.043175 -0.004111 0.049944
22 0.032158 -0.061151 0.014455 -0.023899 -0.040053 -0.005353 0.010340 -0.028288 0.040563 0.021574 0.044191 -0.028683 0.020203 -0.069928 -0.053409 -0.077721 0.008086 -0.018343 -0.026091 0.031743 -0.000516 0.009260 -0.018905 0.000287 0.001024 -0.073373 -0.030326 0.050240 -0.012811 -0.015881 -0.046158 0.036600 0.022961 0.046508 -0.003645 0.013473 -0.000008 -0.000800 0.030902 -0.056619 0.034901 -0.034948 0.015795 -0.009769 0.005130 0.014186 -0.008781 -0.004370 -0.012669 0.064360 0.005378 -0.031325 0.055860 -0.019704 0.057433 -0.055540 -0.001143 0.003480 0.005914 0.019385 0.015572 -0.045802 -0.024097 0.006788 -0.013087 0.003018 -0.023567 -0.016398 -0.035820 0.009229 -0.016414 0.017280 0.014102 0.027424 -0.002243 0.020885 0.054673 -0.016362 -0.006752 -0.019160 -0.005770 -0.006454 -0.018235 -0.039508 0.006861 0.016960 -0.041733 0.014242 -0.041814 -0.017722 0.004725 -0.031064 0.020586 -0.018408 0.021022 -0.009661 0.018019 0.039560 0.006538 -0.058978 -0.032421 0.025862 0.009938 0.027923 0.005332 0.013735 -0.016437 -0.001957 0.005574 0.008231 -0.000439 -0.030698 0.014868 0.043732 -0.008169 0.046349 0.025112 -0.026856 0.004742 0.014324 -0.031847 0.040668 0.031431 -0.012879 0.014774 -0.039331 0.000521 0.049174
18 0.034207 -0.060090 0.009633 -0.027997 -0.038381 -0.007048 0.010518 -0.029635 0.036137 0.027157 0.044464 -0.029733 0.020317 -0.064485 -0.055488 -0.077429 0.009726 -0.020480 -0.029346 0.028083 -0.005365 0.014464 -0.015621 -0.000034 0.006432 -0.065221 -0.026923 0.045399 -0.010473 -0.016696 -0.046445 0.040082 0.028397 0.049325 -0.000905 0.015331 -0.000162 -0.002328 0.033169 -0.061681 0.042056 -0.029443 0.012710 -0.004280 0.004620 0.012886 -0.015555 -0.007417 -0.011652 0.062275 0.003327 -0.034896 0.055731 -0.023005 0.058104 -0.057384 0.004561 0.008066 0.001694 0.016687 0.013289 -0.044830 -0.023434 0.006036 -0.017843 0.004444 -0.021662 -0.017966 -0.036309 0.012984 -0.018085 0.012043 0.009841 0.026014 -0.001591 0.019975 0.055476 -0.012958 -0.008396 -0.017833 -0.001946 -0.002205 -0.016082 -0.032413 0.005925 0.015893 -0.039245 0.015684 -0.036351 -0.010498 0.006654 -0.035888 0.016885 -0.018164 0.016463 -0.010161 0.017266 0.035500 0.005847 -0.055998 -0.031483 0.031111 0.009655 0.027470 0.008194 0.016811 -0.019626 -0.003720 0.001397 0.006242 0.000758 -0.027504 0.016749 0.044316 -0.010346 0.049720 0.019926 -0.026368 0.007938 0.016130 -0.029808 0.034981 0.029677 -0.013473 0.015713 -0.035085 0.002614 0.048074
4 0.032883 -0.068817 0.015561 -0.026285 -0.035346 -0.001193 0.012028 -0.029685 0.034825 0.027121 0.044545 -0.030482 0.019499 -0.066366 -0.056689 -0.077501 0.010760 -0.020797 -0.031362 0.029898 -0.003122 0.010073 -0.021629 -0.007129 -0.001786 -0.070107 -0.029458 0.049335 -0.009600 -0.013200 -0.048283 0.038094 0.022803 0.044839 -0.006040 0.017120 -0.003714 0.001458 0.028779 -0.057533 0.039129 -0.030223 0.014319 -0.006478 0.009758 0.010143 -0.010650 -0.006244 -0.014240 0.064144 0.005034 -0.034603 0.057222 -0.019880 0.056859 -0.054910 0.001476 0.010466 0.003414 0.019201 0.013051 -0.043829 -0.023554 0.010389 -0.011509 0.002373 -0.020199 -0.021199 -0.036383 0.009833 -0.017883 0.018203 0.011895 0.026687 0.001527 0.022617 0.049973 -0.015055 -0.009964 -0.018325 -0.006193 -0.002837 -0.017815 -0.036340 0.006672 0.018080 -0.040498 0.014925 -0.041663 -0.015385 0.009339 -0.032280 0.020743 -0.016014 0.019254 -0.010798 0.018342 0.040612 0.011298 -0.056141 -0.034995 0.027097 0.004343 0.028178 0.006870 0.014207 -0.014573 -0.005799 0.004270 0.010620 -0.002980 -0.031567 0.016187 0.044051 -0.004425 0.043783 0.024297 -0.023690 0.004927 0.016393 -0.029013 0.042109 0.027554 -0.011014 0.018659 -0.039849 -0.004591 0.046241
3 0.032793 -0.063017 0.013618 -0.020852 -0.031444 0.000024 0.006752 -0.027035 0.035241 0.019245 0.039327 -0.030098 0.022694 -0.064630 -0.053508 -0.068716 0.009044 -0.016859 -0.026952 0.032456 -0.004769 0.011905 -0.018417 -0.003217 0.001290 -0.060351 -0.020614 0.041999 -0.009197 -0.012786 -0.043955 0.032549 0.025489 0.046910 -0.005655 0.011788 0.001951 -0.002035 0.024961 -0.050591 0.036842 -0.031054 0.009564 -0.002196 0.005460 0.008495 -0.015186 -0.001644 -0.011327 0.060075 0.004492 -0.028541 0.054062 -0.020228 0.054008 -0.055141 0.003902 0.002490 0.000615 0.011891 0.011337 -0.043592 -0.020729 0.002653 -0.014170 0.000886 -0.020976 -0.017346 -0.035235 0.008488 -0.015387 0.014381 0.005933 0.019719 0.002315 0.018131 0.051863 -0.018224 -0.012637 -0.018778 -0.003740 -0.000135 -0.017459 -0.036131 0.000579 0.015528 -0.033774 0.014437 -0.035203 -0.013169 0.007943 -0.035236 0.019242 -0.016236 0.019494 -0.011324 0.014102 0.036256 0.006335 -0.047948 -0.029355 0.023678 0.011001 0.020200 0.010746 0.017958 -0.013920 -0.001599 0.001807 0.008716 0.000951 -0.029042 0.012086 0.038129 -0.003028 0.046360 0.026256 -0.019334 0.001926 0.016728 -0.022574 0.035104 0.022037 -0.008759 0.014659 -0.035829 -0.003109 0.042522
11 0.032761 -0.068364 0.012998 -0.022968 -0.038780 -0.001864 0.010095 -0.028918 0.039584 0.027949 0.044731 -0.026850 0.022061 -0.068799 -0.052911 -0.077883 0.008485 -0.014523 -0.030050 0.034107 -0.008101 0.012268 -0.022713 -0.000756 0.006455 -0.073240 -0.028568 0.048586 -0.011288 -0.016039 -0.043166 0.033435 0.026376 0.051498 -0.003837 0.017043 0.000593 0.001632 0.032685 -0.059603 0.035011 -0.028802 0.015241 -0.009621 0.007318 0.014145 -0.015886 -0.008604 -0.015192 0.063831 0.006614 -0.031853 0.057938 -0.022851 0.058613 -0.061262 0.003946 0.009957 -0.000283 0.019507 0.008723 -0.040839 -0.022244 0.009176 -0.018644 0.003345 -0.018530 -0.020249 -0.032080 0.009132 -0.022309 0.012900 0.013400 0.024478 -0.003115 0.023045 0.054760 -0.014482 -0.011699 -0.021597 -0.004844 -0.004284 -0.021733 -0.033426 0.000794 0.015631 -0.036372 0.011933 -0.042095 -0.016234 0.008252 -0.033324 0.020564 -0.019323 0.021700 -0.011942 0.018128 0.040737 0.007825 -0.059086 -0.031292 0.030230 0.007740 0.022721 0.010058 0.015015 -0.015778 0.000711 0.003272 0.003691 -0.004289 -0.028651 0.017246 0.043756 -0.003284 0.046660 0.021174 -0.026923 0.008643 0.017286 -0.032482 0.035248 0.027832 -0.013424 0.012270 -0.038861 0.000279 0.047690
7 0.029562 -0.047850 0.007072 -0.019274 -0.031548 -0.002659 0.008168 -0.022101 0.031323 0.022232 0.035114 -0.026396 0.016275 -0.054343 -0.040290 -0.061918 0.006489 -0.012510 -0.020548 0.022273 -0.000877 0.011052 -0.017719 -0.003495 0.002825 -0.054943 -0.018997 0.037203 -0.009863 -0.012665 -0.036834 0.028906 0.019115 0.035390 -0.006447 0.011293 0.002514 -0.005069 0.021954 -0.046950 0.030155 -0.028672 0.004736 -0.000071 0.006511 0.010123 -0.009904 -0.002935 -0.012885 0.049637 0.002024 -0.028287 0.040784 -0.019290 0.044071 -0.049154 0.002814 0.001692 0.003206 0.010417 0.008735 -0.033109 -0.016078 0.008534 -0.013266 0.001335 -0.014824 -0.016711 -0.032081 0.008748 -0.011321 0.007256 0.010934 0.018314 0.004641 0.018637 0.044186 -0.010029 -0.010661 -0.011634 -0.005255 -0.000101 -0.014714 -0.023840 0.003679 0.012367 -0.033401 0.010716 -0.033155 -0.009789 0.008210 -0.026999 0.016726 -0.011656 0.011795 -0.008777 0.012360 0.033483 0.003981 -0.045053 -0.026012 0.022270 0.003808 0.016808 0.004250 0.015108 -0.014023 -0.000289 0.001041 0.003153 -0.003550 -0.024552 0.010205 0.036744 -0.004268 0.036855 0.018778 -0.018584 0.006187 0.011824 -0.025170 0.034154 0.022220 -0.006896 0.012106 -0.026501 -0.003689 0.033046
19 0.037633 -0.070073 0.012447 -0.031664 -0.039601 -0.002114 0.012218 -0.031661 0.037255 0.023649 0.043641 -0.032891 0.020969 -0.073899 -0.059303 -0.080838 0.012369 -0.017811 -0.027882 0.032639 -0.006734 0.011069 -0.017626 -0.006625 0.000019 -0.073815 -0.028205 0.049814 -0.019043 -0.019500 -0.047934 0.042541 0.025427 0.050435 -0.004453 0.012783 -0.002918 -0.005843 0.035357 -0.066449 0.044142 -0.035070 0.012202 -0.002765 0.009954 0.011433 -0.016668 -0.004488 -0.011764 0.066595 0.003922 -0.034936 0.057380 -0.024332 0.059815 -0.062164 0.005445 0.009714 0.005084 0.012167 0.012122 -0.043579 -0.023315 0.009919 -0.013533 0.004659 -0.026536 -0.020436 -0.040374 0.008883 -0.018794 0.015230 0.013026 0.026603 -0.002604 0.021804 0.057571 -0.015841 -0.014278 -0.019825 -0.004178 -0.005624 -0.022753 -0.038917 0.005238 0.015568 -0.042580 0.016138 -0.046041 -0.012352 0.008396 -0.037664 0.018763 -0.019692 0.019189 -0.009444 0.022404 0.040595 0.012185 -0.058682 -0.035220 0.031974 0.007355 0.028246 0.009350 0.021519 -0.018606 -0.002370 0.004038 0.011607 -0.004944 -0.032398 0.015905 0.042540 -0.007259 0.052683 0.024660 -0.025608 0.010056 0.013024 -0.030277 0.040623 0.031313 -0.016464 0.017784 -0.041637 0.002902 0.048880
5 0.038347 -0.072438 0.016318 -0.025597 -0.040633 -0.000792 0.010073 -0.028286 0.036615 0.021986 0.046708 -0.033639 0.022637 -0.073585 -0.056237 -0.080155 0.010536 -0.023415 -0.032401 0.037980 -0.006946 0.010935 -0.022223 -0.000563 0.000479 -0.074849 -0.025429 0.051661 -0.017286 -0.015465 -0.047673 0.037324 0.027908 0.054381 -0.003994 0.018835 -0.001755 -0.001754 0.034268 -0.058476 0.040630 -0.032470 0.012048 -0.006623 0.004771 0.013868 -0.013048 -0.006549 -0.017197 0.063203 0.000774 -0.037677 0.061528 -0.023590 0.064013 -0.059684 0.000215 0.006424 -0.000159 0.013282 0.015686 -0.050051 -0.024403 0.004901 -0.018212 0.005586 -0.020867 -0.020032 -0.042074 0.015314 -0.018853 0.018600 0.007502 0.028644 0.004330 0.019802 0.054557 -0.017942 -0.007528 -0.020507 -0.002899 0.000368 -0.019220 -0.035493 0.002111 0.021497 -0.039345 0.017400 -0.047086 -0.014093 0.007879 -0.040594 0.023192 -0.014908 0.015866 -0.013140 0.020692 0.040717 0.011535 -0.061400 -0.034800 0.032268 0.008480 0.030680 0.009032 0.015800 -0.019688 -0.004030 0.003627 0.007767 -0.002089 -0.029124 0.014287 0.047065 -0.008844 0.053998 0.026324 -0.025070 0.003302 0.015806 -0.033323 0.044988 0.025649 -0.008475 0.017013 -0.041522 -0.005018 0.051997
10 0.037643 -0.067958 0.010654 -0.031734 -0.041236 -0.008584 0.007526 -0.031845 0.039557 0.027621 0.042806 -0.033331 0.022779 -0.070670 -0.058683 -0.081759 0.013952 -0.015116 -0.032090 0.034120 -0.002489 0.010462 -0.021306 -0.005580 -0.000277 -0.069416 -0.026323 0.051058 -0.011720 -0.017506 -0.048713 0.035191 0.025834 0.048125 -0.007727 0.016080 -0.002931 -0.001086 0.033230 -0.062761 0.041233 -0.036786 0.012663 -0.007575 0.005727 0.011453 -0.010681 -0.005518 -0.010345 0.062103 0.007910 -0.031696 0.057419 -0.021715 0.063183 -0.063761 0.003831 0.005109 0.003373 0.016599 0.013235 -0.047172 -0.023539 0.010851 -0.017857 -0.000134 -0.019791 -0.019567 -0.040222 0.013199 -0.021621 0.018494 0.009594 0.024589 0.001869 0.023374 0.053192 -0.020909 -0.008652 -0.016446 -0.009042 -0.002925 -0.022895 -0.038773 0.001217 0.017337 -0.040237 0.011983 -0.039385 -0.011565 0.009611 -0.038712 0.021463 -0.017425 0.022471 -0.006915 0.020305 0.038770 0.004811 -0.059795 -0.034325 0.031290 0.008752 0.024183 0.006106 0.014757 -0.019448 -0.004555 0.005655 0.010431 -0.001210 -0.028697 0.015263 0.048984 -0.006608 0.051444 0.025019 -0.024592 0.005686 0.016490 -0.032429 0.041534 0.025214 -0.013232 0.013782 -0.037650 -0.004338 0.045763
15 0.033851 -0.059079 0.012037 -0.025848 -0.032224 -0.005702 0.011793 -0.029947 0.030667 0.020405 0.040155 -0.025071 0.023053 -0.061939 -0.048511 -0.069622 0.008152 -0.019048 -0.029561 0.027612 -0.008179 0.006704 -0.015279 -0.004471 0.005569 -0.069592 -0.027485 0.046850 -0.015035 -0.013861 -0.039990 0.036580 0.024663 0.048733 -0.000201 0.013199 0.001734 0.001017 0.030439 -0.058574 0.034840 -0.031879 0.009332 -0.007219 0.004027 0.007932 -0.008856 -0.007090 -0.008337 0.059445 0.006358 -0.036334 0.051508 -0.016678 0.054753 -0.054286 0.005414 0.004233 0.002027 0.012716 0.014114 -0.038722 -0.025147 0.007203 -0.015982 -0.000595 -0.021127 -0.017293 -0.031273 0.009836 -0.019893 0.010710 0.009509 0.025460 -0.000750 0.019250 0.050142 -0.017867 -0.011798 -0.018784 -0.000843 -0.003306 -0.013841 -0.030145 0.006368 0.019212 -0.037982 0.015302 -0.034632 -0.011438 0.008771 -0.036693 0.012749 -0.012734 0.013865 -0.006020 0.013481 0.038491 0.008090 -0.054926 -0.033475 0.026546 0.007751 0.021148 0.010120 0.013167 -0.020611 -0.004453 0.004085 0.004829 -0.005095 -0.027064 0.017264 0.042179 -0.004737 0.041866 0.019799 -0.025839 0.003571 0.012833 -0.029562 0.037310 0.027907 -0.011380 0.012114 -0.032964 0.002671 0.043395
9 0.031934 -0.062377 0.010997 -0.023229 -0.033740 -0.005167 0.007326 -0.028683 0.037967 0.023640 0.034683 -0.030739 0.019868 -0.062289 -0.053565 -0.068362 0.013036 -0.013236 -0.028009 0.027818 -0.002922 0.010007 -0.021158 -0.007390 0.003969 -0.066928 -0.024501 0.045946 -0.011139 -0.015611 -0.040232 0.037331 0.021239 0.045741 -0.003640 0.014896 0.000285 -0.003057 0.025992 -0.055965 0.031341 -0.033614 0.008605 -0.004923 0.007771 0.012901 -0.010471 -0.008411 -0.013541 0.059277 0.002016 -0.034393 0.051938 -0.018480 0.053587 -0.057659 0.004652 0.005337 0.001503 0.018727 0.011419 -0.037051 -0.026062 0.009661 -0.014801 -0.000584 -0.017237 -0.020074 -0.030427 0.010021 -0.019040 0.013731 0.008724 0.024495 0.002789 0.017111 0.045286 -0.018289 -0.011672 -0.017023 -0.003534 -0.006172 -0.018349 -0.030427 0.007618 0.019521 -0.033106 0.016536 -0.041508 -0.016419 0.003506 -0.035994 0.017492 -0.013433 0.018569 -0.009892 0.020062 0.037200 0.010681 -0.054737 -0.031890 0.028021 0.009234 0.027139 0.011564 0.014628 -0.016588 0.000690 -0.000803 0.003413 -0.004635 -0.024952 0.016488 0.041639 -0.004360 0.043824 0.024942 -0.022498 0.006305 0.015949 -0.023656 0.036859 0.025683 -0.014355 0.011529 -0.037664 0.002113 0.041204
17 0.030987 -0.066672 0.008108 -0.030799 -0.036974 -0.006167 0.006075 -0.026988 0.037788 0.022284 0.040167 -0.032467 0.020562 -0.070868 -0.056770 -0.076012 0.009455 -0.018439 -0.027309 0.033041 -0.004091 0.010991 -0.022155 -0.005826 0.006168 -0.073211 -0.025265 0.050778 -0.018111 -0.018644 -0.044661 0.041640 0.027466 0.048381 -0.000405 0.014038 -0.001265 -0.005095 0.032222 -0.059502 0.041891 -0.029159 0.010330 -0.003038 0.011673 0.012397 -0.011161 -0.005293 -0.013041 0.064902 0.004700 -0.036651 0.056922 -0.018312 0.061123 -0.056953 0.002174 0.006797 -0.000019 0.013165 0.015488 -0.041658 -0.024240 0.006397 -0.011953 0.005178 -0.022704 -0.014959 -0.038193 0.009548 -0.020267 0.010947 0.006462 0.025590 -0.000034 0.023955 0.055471 -0.020285 -0.007587 -0.016277 -0.001953 -0.002303 -0.018468 -0.034316 0.002636 0.015248 -0.041817 0.013508 -0.042575 -0.011205 0.010362 -0.031519 0.016386 -0.019370 0.017610 -0.012038 0.018927 0.034663 0.007445 -0.052750 -0.034532 0.031009 0.008522 0.029003 0.010551 0.013993 -0.016968 -0.002852 0.005654 0.004509 -0.001136 -0.032220 0.020075 0.045496 -0.008014 0.047397 0.025304 -0.021037 0.006251 0.012218 -0.027013 0.040411 0.026118 -0.010149 0.012909 -0.032577 -0.000620 0.049889
14 0.040883 -0.076583 0.011591 -0.031358 -0.040959 -0.008466 0.009343 -0.034961 0.042813 0.025370 0.049476 -0.035992 0.025932 -0.078401 -0.059977 -0.085713 0.014556 -0.023357 -0.033673 0.037929 -0.003209 0.016302 -0.020757 -0.004164 0.006736 -0.077589 -0.032719 0.051158 -0.012400 -0.015843 -0.050845 0.046309 0.029374 0.051416 -0.000750 0.015883 0.003090 -0.002277 0.034605 -0.070341 0.047506 -0.037454 0.016803 -0.008017 0.008773 0.012017 -0.017077 -0.009543 -0.011854 0.070769 0.004960 -0.042108 0.067008 -0.025244 0.067978 -0.066659 -0.000647 0.011216 -0.000543 0.021061 0.012813 -0.052499 -0.032068 0.005013 -0.017321 0.003028 -0.022805 -0.018371 -0.042599 0.016125 -0.020610 0.019169 0.015362 0.027261 -0.000229 0.026722 0.061709 -0.021127 -0.012274 -0.021259 -0.008344 -0.004102 -0.022189 -0.044975 0.002731 0.020076 -0.041970 0.017869 -0.047514 -0.013503 0.013047 -0.041832 0.017306 -0.022556 0.017874 -0.009060 0.017328 0.042284 0.012674 -0.063736 -0.037497 0.034639 0.005248 0.032277 0.010724 0.020668 -0.016525 -0.005706 0.007036 0.006651 -0.000581 -0.030071 0.016971 0.052434 -0.004368 0.055435 0.023751 -0.025668 0.004982 0.011857 -0.036729 0.041447 0.033463 -0.014996 0.020598 -0.038502 -0.000636 0.055803
13 0.022677 -0.051324 0.009151 -0.023034 -0.028225 -0.004739 0.004442 -0.025468 0.031393 0.022370 0.030865 -0.024780 0.017498 -0.055639 -0.039806 -0.059137 0.009258 -0.017557 -0.022028 0.022328 -0.006322 0.010395 -0.018892 -0.004278 0.003465 -0.057710 -0.021540 0.036940 -0.010908 -0.013825 -0.035124 0.032975 0.023014 0.033585 -0.004645 0.015244 -0.000315 -0.005260 0.023671 -0.048780 0.031879 -0.022306 0.011548 -0.007978 0.009200 0.011929 -0.011227 -0.006675 -0.009741 0.047785 0.002435 -0.025486 0.046735 -0.017045 0.042230 -0.047138 0.002045 0.004137 0.003405 0.012990 0.007914 -0.031357 -0.020377 0.007609 -0.008954 -0.001588 -0.014162 -0.015072 -0.029836 0.009607 -0.012603 0.013083 0.011322 0.022335 0.003589 0.018789 0.038227 -0.011264 -0.010305 -0.018133 -0.007045 -0.003083 -0.011238 -0.031425 0.005967 0.011183 -0.029168 0.009153 -0.034911 -0.012547 0.008533 -0.027104 0.010410 -0.014764 0.016949 -0.010177 0.010555 0.026020 0.006005 -0.042358 -0.024511 0.023565 0.006921 0.019405 0.009349 0.015400 -0.012846 -0.003832 -0.001189 0.007777 -0.002786 -0.018238 0.016763 0.037434 -0.005414 0.033126 0.017025 -0.020493 0.004931 0.007640 -0.024244 0.031086 0.023814 -0.007404 0.011403 -0.031862 -0.004189 0.039608
